svm_type c_svc
kernel_type rbf
gamma 0.25
nr_class 2
total_sv 8
rho 0.849716
label 1 -1
nr_sv 3 5
SV
1 1:4.8 2:0 3:0 4:6.2 
1 1:8.3 2:0 3:0 4:2.1 
1 1:10.7 2:0 3:0 4:3.6 
-0.1727466522306824 1:3.1 2:0 3:0 4:9.7 
-0.5473199301720136 1:5.2 2:0 3:0 4:4.5 
-0.6608634660131962 1:7.2 2:0 3:0 4:2.5 
-0.9785365304670128 1:9.9 2:0 3:0 4:2.7 
-0.6405334211170949 1:10.7 2:0 3:0 4:4.5 
