svm_type c_svc
kernel_type rbf
gamma 0.25
nr_class 2
total_sv 8
rho 0.801471
label 1 -1
nr_sv 1 7
SV
1 1:23.9 2:0 3:0 4:2.5 
-0.1885030105476205 1:21.8 2:0 3:0 4:7.8 
-0.07150318095584526 1:18.8 2:0 3:0 4:7.4 
-0.1356886872014514 1:18 2:0 3:0 4:6.8 
-0.1335242937306718 1:18.1 2:9.5 3:0 4:4.6 
-0.1689912253075868 1:19.7 2:5.5 3:0 4:5.6 
-0.1656696206075026 1:19.6 2:3 3:0 4:4.7 
-0.1361199816493218 1:18.7 2:10.5 3:0 4:5.9 
